#pragma once
#include <cstdarg>
namespace Eloquent {
    namespace ML {
        namespace Port {
            class XGBClassifier {
                public:
                    /**
                    * Predict class for features vector
                    */
                    int predict(float *x) {
                        float votes[4] = { 0.0f };
                        // tree #1
                        if (x[0] <= -0.892408) {
                            votes[0] += 0.19859156;
                        }

                        else {
                            votes[0] += -0.06653323;
                        }

                        // tree #2
                        if (x[2] <= -0.5694736) {
                            if (x[3] <= -0.5000913) {
                                if (x[5] <= -0.36274436) {
                                    votes[1] += -0.06602367;
                                }

                                else {
                                    votes[1] += -0.038961038;
                                }
                            }

                            else {
                                if (x[7] <= -0.009546515) {
                                    votes[1] += 0.07982833;
                                }

                                else {
                                    votes[1] += -0.06076459;
                                }
                            }
                        }

                        else {
                            if (x[2] <= 0.76203483) {
                                if (x[2] <= -0.2964282) {
                                    votes[1] += 0.03301708;
                                }

                                else {
                                    votes[1] += 0.16995792;
                                }
                            }

                            else {
                                if (x[6] <= 0.15813059) {
                                    votes[1] += 0.18072289;
                                }

                                else {
                                    votes[1] += -0.06641366;
                                }
                            }
                        }

                        // tree #3
                        if (x[2] <= 0.76203483) {
                            if (x[9] <= -0.62264067) {
                                if (x[10] <= -0.85409623) {
                                    votes[2] += 0.16384616;
                                }

                                else {
                                    votes[2] += -0.055935618;
                                }
                            }

                            else {
                                if (x[9] <= -0.6179298) {
                                    votes[2] += -0.0067294757;
                                }

                                else {
                                    votes[2] += -0.057377785;
                                }
                            }
                        }

                        else {
                            if (x[6] <= 0.15813059) {
                                votes[2] += -0.060240965;
                            }

                            else {
                                votes[2] += 0.19924098;
                            }
                        }

                        // tree #4
                        if (x[9] <= -0.58109546) {
                            if (x[9] <= -0.622368) {
                                if (x[7] <= 0.2933823) {
                                    votes[3] += -0.022496147;
                                }

                                else {
                                    votes[3] += 0.17437723;
                                }
                            }

                            else {
                                if (x[2] <= -0.34286538) {
                                    votes[3] += 0.16685155;
                                }

                                else {
                                    votes[3] += -0.033576645;
                                }
                            }
                        }

                        else {
                            if (x[10] <= -0.42187) {
                                if (x[7] <= -0.8140734) {
                                    votes[3] += -0.06387435;
                                }

                                else {
                                    votes[3] += 0.17692308;
                                }
                            }

                            else {
                                if (x[7] <= -1.3510066) {
                                    votes[3] += 0.11384616;
                                }

                                else {
                                    votes[3] += -0.06358464;
                                }
                            }
                        }

                        // tree #5
                        if (x[8] <= -0.61341405) {
                            votes[0] += 0.1646047;
                        }

                        else {
                            if (x[2] <= -0.87412125) {
                                votes[0] += 0.012167678;
                            }

                            else {
                                votes[0] += -0.065123886;
                            }
                        }

                        // tree #6
                        if (x[2] <= -0.5694736) {
                            if (x[3] <= -0.5000913) {
                                if (x[5] <= -0.36274436) {
                                    votes[1] += -0.064533204;
                                }

                                else {
                                    votes[1] += -0.03745861;
                                }
                            }

                            else {
                                if (x[7] <= -0.009546515) {
                                    votes[1] += 0.073367834;
                                }

                                else {
                                    votes[1] += -0.059200823;
                                }
                            }
                        }

                        else {
                            if (x[2] <= 0.95866084) {
                                if (x[6] <= 0.15813059) {
                                    votes[1] += 0.16028196;
                                }

                                else {
                                    votes[1] += 0.068298005;
                                }
                            }

                            else {
                                if (x[6] <= 0.15813059) {
                                    votes[1] += 0.12899981;
                                }

                                else {
                                    votes[1] += -0.06485;
                                }
                            }
                        }

                        // tree #7
                        if (x[2] <= 0.76203483) {
                            if (x[9] <= -0.62264067) {
                                if (x[10] <= -0.85409623) {
                                    votes[2] += 0.1394698;
                                }

                                else {
                                    votes[2] += -0.055020906;
                                }
                            }

                            else {
                                if (x[9] <= -0.6179298) {
                                    votes[2] += -0.0054671317;
                                }

                                else {
                                    votes[2] += -0.055683564;
                                }
                            }
                        }

                        else {
                            if (x[6] <= 0.15813059) {
                                votes[2] += -0.058776975;
                            }

                            else {
                                votes[2] += 0.16455285;
                            }
                        }

                        // tree #8
                        if (x[9] <= -0.58109546) {
                            if (x[9] <= -0.623222) {
                                if (x[7] <= 0.2933823) {
                                    votes[3] += -0.028813815;
                                }

                                else {
                                    votes[3] += 0.14917508;
                                }
                            }

                            else {
                                if (x[2] <= -0.21423352) {
                                    votes[3] += 0.135316;
                                }

                                else {
                                    votes[3] += -0.055117823;
                                }
                            }
                        }

                        else {
                            if (x[10] <= -0.42187) {
                                if (x[7] <= -0.8140734) {
                                    votes[3] += -0.062447976;
                                }

                                else {
                                    votes[3] += 0.15454675;
                                }
                            }

                            else {
                                if (x[7] <= -1.3510066) {
                                    votes[3] += 0.105488025;
                                }

                                else {
                                    votes[3] += -0.062001467;
                                }
                            }
                        }

                        // tree #9
                        if (x[8] <= -0.61341405) {
                            votes[0] += 0.14149629;
                        }

                        else {
                            if (x[2] <= -0.87412125) {
                                votes[0] += 0.012770541;
                            }

                            else {
                                votes[0] += -0.0637888;
                            }
                        }

                        // tree #10
                        if (x[2] <= -0.5694736) {
                            if (x[3] <= -0.5000913) {
                                if (x[5] <= -0.36274436) {
                                    votes[1] += -0.063189976;
                                }

                                else {
                                    votes[1] += -0.03596346;
                                }
                            }

                            else {
                                if (x[7] <= -0.009546515) {
                                    votes[1] += 0.067945056;
                                }

                                else {
                                    votes[1] += -0.05774801;
                                }
                            }
                        }

                        else {
                            if (x[2] <= 1.0458517) {
                                if (x[6] <= 0.40096462) {
                                    votes[1] += 0.11758417;
                                }

                                else {
                                    votes[1] += -0.06855579;
                                }
                            }

                            else {
                                if (x[6] <= 0.15813059) {
                                    votes[1] += 0.084392905;
                                }

                                else {
                                    votes[1] += -0.06343214;
                                }
                            }
                        }

                        // tree #11
                        if (x[2] <= 0.76203483) {
                            if (x[9] <= -0.6202346) {
                                if (x[10] <= -0.85409623) {
                                    votes[2] += 0.122833095;
                                }

                                else {
                                    votes[2] += -0.05669955;
                                }
                            }

                            else {
                                if (x[5] <= 0.73614943) {
                                    votes[2] += -0.05791205;
                                }

                                else {
                                    votes[2] += -0.0024599074;
                                }
                            }
                        }

                        else {
                            if (x[6] <= 0.15813059) {
                                votes[2] += -0.057394415;
                            }

                            else {
                                votes[2] += 0.14130275;
                            }
                        }

                        // tree #12
                        if (x[9] <= -0.58109546) {
                            if (x[9] <= -0.623222) {
                                if (x[7] <= 0.2933823) {
                                    votes[3] += -0.02753648;
                                }

                                else {
                                    votes[3] += 0.13211195;
                                }
                            }

                            else {
                                if (x[2] <= -0.21423352) {
                                    votes[3] += 0.11762544;
                                }

                                else {
                                    votes[3] += -0.053374268;
                                }
                            }
                        }

                        else {
                            if (x[10] <= -0.42187) {
                                if (x[7] <= -0.8140734) {
                                    votes[3] += -0.06101503;
                                }

                                else {
                                    votes[3] += 0.13845822;
                                }
                            }

                            else {
                                if (x[7] <= -1.3510066) {
                                    votes[3] += 0.09779366;
                                }

                                else {
                                    votes[3] += -0.060582846;
                                }
                            }
                        }

                        // tree #13
                        if (x[8] <= -0.61341405) {
                            votes[0] += 0.12474822;
                        }

                        else {
                            if (x[2] <= -0.87412125) {
                                votes[0] += 0.013208005;
                            }

                            else {
                                votes[0] += -0.06258546;
                            }
                        }

                        // tree #14
                        if (x[2] <= -0.5694736) {
                            if (x[3] <= -0.5000913) {
                                if (x[5] <= -0.36274436) {
                                    votes[1] += -0.061977863;
                                }

                                else {
                                    votes[1] += -0.034478027;
                                }
                            }

                            else {
                                if (x[6] <= 0.15813059) {
                                    votes[1] += 0.056403864;
                                }

                                else {
                                    votes[1] += -0.06133644;
                                }
                            }
                        }

                        else {
                            if (x[2] <= 1.0458517) {
                                if (x[6] <= 0.40096462) {
                                    votes[1] += 0.10411527;
                                }

                                else {
                                    votes[1] += -0.06767055;
                                }
                            }

                            else {
                                if (x[6] <= 0.15813059) {
                                    votes[1] += 0.078235105;
                                }

                                else {
                                    votes[1] += -0.062141757;
                                }
                            }
                        }

                        // tree #15
                        if (x[2] <= 0.76203483) {
                            if (x[9] <= -0.6202346) {
                                if (x[10] <= -0.8713266) {
                                    votes[2] += 0.11723741;
                                }

                                else {
                                    votes[2] += -0.041685283;
                                }
                            }

                            else {
                                if (x[5] <= 0.73614943) {
                                    votes[2] += -0.05646488;
                                }

                                else {
                                    votes[2] += -0.0015711182;
                                }
                            }
                        }

                        else {
                            if (x[6] <= 0.15813059) {
                                votes[2] += -0.05619916;
                            }

                            else {
                                votes[2] += 0.124562;
                            }
                        }

                        // tree #16
                        if (x[9] <= -0.58109546) {
                            if (x[9] <= -0.6202346) {
                                if (x[10] <= -0.8713266) {
                                    votes[3] += -0.03767353;
                                }

                                else {
                                    votes[3] += 0.08254532;
                                }
                            }

                            else {
                                if (x[2] <= -0.21423352) {
                                    votes[3] += 0.11265321;
                                }

                                else {
                                    votes[3] += -0.051706452;
                                }
                            }
                        }

                        else {
                            if (x[10] <= -0.42187) {
                                if (x[7] <= -0.8140734) {
                                    votes[3] += -0.05964602;
                                }

                                else {
                                    votes[3] += 0.12688263;
                                }
                            }

                            else {
                                if (x[7] <= -1.3510066) {
                                    votes[3] += 0.091822796;
                                }

                                else {
                                    votes[3] += -0.059243996;
                                }
                            }
                        }

                        // tree #17
                        if (x[0] <= -0.892408) {
                            votes[0] += 0.112184644;
                        }

                        else {
                            if (x[8] <= -0.6008213) {
                                if (x[3] <= -0.59275454) {
                                    votes[0] += -0.046910048;
                                }

                                else {
                                    votes[0] += 0.013809902;
                                }
                            }

                            else {
                                votes[0] += -0.06149083;
                            }
                        }

                        // tree #18
                        if (x[2] <= -0.5694736) {
                            if (x[3] <= -0.5000913) {
                                if (x[5] <= -0.36274436) {
                                    votes[1] += -0.06085812;
                                }

                                else {
                                    votes[1] += -0.03305241;
                                }
                            }

                            else {
                                if (x[7] <= -0.009546515) {
                                    votes[1] += 0.06334173;
                                }

                                else {
                                    votes[1] += -0.055692118;
                                }
                            }
                        }

                        else {
                            if (x[2] <= 1.0458517) {
                                if (x[6] <= 0.15813059) {
                                    votes[1] += 0.11286821;
                                }

                                else {
                                    votes[1] += 0.042483173;
                                }
                            }

                            else {
                                if (x[6] <= 0.15813059) {
                                    votes[1] += 0.07284082;
                                }

                                else {
                                    votes[1] += -0.060964186;
                                }
                            }
                        }

                        // tree #19
                        if (x[2] <= 0.76203483) {
                            if (x[9] <= -0.6202346) {
                                if (x[10] <= -0.849208) {
                                    votes[2] += 0.09715533;
                                }

                                else {
                                    votes[2] += -0.057798326;
                                }
                            }

                            else {
                                if (x[5] <= 0.73614943) {
                                    votes[2] += -0.055054676;
                                }

                                else {
                                    votes[2] += -0.0006990721;
                                }
                            }
                        }

                        else {
                            if (x[6] <= 0.15813059) {
                                votes[2] += -0.055053204;
                            }

                            else {
                                votes[2] += 0.11199843;
                            }
                        }

                        // tree #20
                        if (x[9] <= -0.58109546) {
                            if (x[9] <= -0.6253329) {
                                if (x[0] <= -0.7766054) {
                                    votes[3] += 0.13069858;
                                }

                                else {
                                    votes[3] += -0.034702208;
                                }
                            }

                            else {
                                if (x[2] <= -0.21423352) {
                                    votes[3] += 0.09069826;
                                }

                                else {
                                    votes[3] += -0.050771873;
                                }
                            }
                        }

                        else {
                            if (x[10] <= -0.42187) {
                                if (x[7] <= -0.8140734) {
                                    votes[3] += -0.05839591;
                                }

                                else {
                                    votes[3] += 0.11766956;
                                }
                            }

                            else {
                                if (x[7] <= -1.3510066) {
                                    votes[3] += 0.08671392;
                                }

                                else {
                                    votes[3] += -0.057986397;
                                }
                            }
                        }

                        // tree #21
                        if (x[8] <= -0.61341405) {
                            votes[0] += 0.10242951;
                        }

                        else {
                            if (x[2] <= -0.87412125) {
                                votes[0] += 0.01249647;
                            }

                            else {
                                votes[0] += -0.060505506;
                            }
                        }

                        // tree #22
                        if (x[2] <= -0.5963472) {
                            if (x[3] <= -0.5000913) {
                                if (x[5] <= -0.36274436) {
                                    votes[1] += -0.0598251;
                                }

                                else {
                                    votes[1] += -0.029107353;
                                }
                            }

                            else {
                                if (x[7] <= -0.02686747) {
                                    votes[1] += 0.067384206;
                                }

                                else {
                                    votes[1] += -0.05423329;
                                }
                            }
                        }

                        else {
                            if (x[2] <= 1.0458517) {
                                if (x[6] <= 0.15813059) {
                                    votes[1] += 0.101208486;
                                }

                                else {
                                    votes[1] += 0.03533022;
                                }
                            }

                            else {
                                if (x[6] <= 0.15813059) {
                                    votes[1] += 0.068092145;
                                }

                                else {
                                    votes[1] += -0.05988979;
                                }
                            }
                        }

                        // tree #23
                        if (x[2] <= 0.76203483) {
                            if (x[9] <= -0.6202346) {
                                if (x[10] <= -0.849208) {
                                    votes[2] += 0.0889203;
                                }

                                else {
                                    votes[2] += -0.056667514;
                                }
                            }

                            else {
                                if (x[5] <= 0.73614943) {
                                    votes[2] += -0.053768933;
                                }

                                else {
                                    votes[2] += 0.0006122627;
                                }
                            }
                        }

                        else {
                            if (x[6] <= 0.15813059) {
                                votes[2] += -0.053821664;
                            }

                            else {
                                votes[2] += 0.10229454;
                            }
                        }

                        // tree #24
                        if (x[9] <= -0.58109546) {
                            if (x[9] <= -0.6202346) {
                                if (x[10] <= -0.8713266) {
                                    votes[3] += -0.035530075;
                                }

                                else {
                                    votes[3] += 0.06802437;
                                }
                            }

                            else {
                                if (x[2] <= -0.21423352) {
                                    votes[3] += 0.09215099;
                                }

                                else {
                                    votes[3] += -0.048369076;
                                }
                            }
                        }

                        else {
                            if (x[10] <= -0.42187) {
                                if (x[7] <= -0.8140734) {
                                    votes[3] += -0.057133645;
                                }

                                else {
                                    votes[3] += 0.10961878;
                                }
                            }

                            else {
                                if (x[7] <= -1.3510066) {
                                    votes[3] += 0.08193597;
                                }

                                else {
                                    votes[3] += -0.056814432;
                                }
                            }
                        }

                        // tree #25
                        if (x[0] <= -0.892408) {
                            votes[0] += 0.0946906;
                        }

                        else {
                            if (x[1] <= -0.60406363) {
                                if (x[3] <= -0.59944606) {
                                    votes[0] += -0.044125453;
                                }

                                else {
                                    votes[0] += 0.013414002;
                                }
                            }

                            else {
                                votes[0] += -0.05961243;
                            }
                        }

                        // tree #26
                        if (x[2] <= -0.5694736) {
                            if (x[3] <= -0.5000913) {
                                if (x[5] <= -0.36274436) {
                                    votes[1] += -0.058906913;
                                }

                                else {
                                    votes[1] += -0.030600965;
                                }
                            }

                            else {
                                if (x[6] <= 0.15813059) {
                                    votes[1] += 0.053459015;
                                }

                                else {
                                    votes[1] += -0.05910311;
                                }
                            }
                        }

                        else {
                            if (x[2] <= 1.0458517) {
                                if (x[6] <= 0.40096462) {
                                    votes[1] += 0.078931004;
                                }

                                else {
                                    votes[1] += -0.06955829;
                                }
                            }

                            else {
                                if (x[6] <= 0.15813059) {
                                    votes[1] += 0.063890494;
                                }

                                else {
                                    votes[1] += -0.058909662;
                                }
                            }
                        }

                        // tree #27
                        if (x[2] <= 0.6226973) {
                            if (x[10] <= -0.84320575) {
                                if (x[10] <= -0.94026464) {
                                    votes[2] += -0.058385134;
                                }

                                else {
                                    votes[2] += 0.083624475;
                                }
                            }

                            else {
                                if (x[6] <= 0.64379865) {
                                    votes[2] += -0.057013076;
                                }

                                else {
                                    votes[2] += 0.0047160233;
                                }
                            }
                        }

                        else {
                            if (x[6] <= 0.15813059) {
                                votes[2] += -0.057203513;
                            }

                            else {
                                if (x[2] <= 0.76203483) {
                                    votes[2] += 0.16992033;
                                }

                                else {
                                    votes[2] += 0.094587;
                                }
                            }
                        }

                        // tree #28
                        if (x[9] <= -0.58109546) {
                            if (x[9] <= -0.6202346) {
                                if (x[10] <= -0.8713266) {
                                    votes[3] += -0.033589993;
                                }

                                else {
                                    votes[3] += 0.062004317;
                                }
                            }

                            else {
                                if (x[2] <= -0.4878389) {
                                    votes[3] += 0.089195564;
                                }

                                else {
                                    votes[3] += -0.010465088;
                                }
                            }
                        }

                        else {
                            if (x[10] <= -0.42187) {
                                if (x[7] <= -0.8140734) {
                                    votes[3] += -0.05598364;
                                }

                                else {
                                    votes[3] += 0.102908924;
                                }
                            }

                            else {
                                if (x[7] <= -1.3510066) {
                                    votes[3] += 0.07769426;
                                }

                                else {
                                    votes[3] += -0.055715412;
                                }
                            }
                        }

                        // tree #29
                        if (x[8] <= -0.61341405) {
                            votes[0] += 0.08860499;
                        }

                        else {
                            if (x[2] <= -0.87412125) {
                                votes[0] += 0.010874967;
                            }

                            else {
                                votes[0] += -0.058787353;
                            }
                        }

                        // tree #30
                        if (x[2] <= -0.5963472) {
                            if (x[3] <= -0.5000913) {
                                if (x[5] <= -0.36274436) {
                                    votes[1] += -0.057985373;
                                }

                                else {
                                    votes[1] += -0.026360407;
                                }
                            }

                            else {
                                if (x[7] <= -0.02686747) {
                                    votes[1] += 0.06423866;
                                }

                                else {
                                    votes[1] += -0.052250344;
                                }
                            }
                        }

                        else {
                            if (x[2] <= 1.0458517) {
                                if (x[6] <= 0.15813059) {
                                    votes[1] += 0.08746473;
                                }

                                else {
                                    votes[1] += 0.027016236;
                                }
                            }

                            else {
                                if (x[6] <= 0.15813059) {
                                    votes[1] += 0.060104884;
                                }

                                else {
                                    votes[1] += -0.058015753;
                                }
                            }
                        }

                        // tree #31
                        if (x[2] <= 0.6226973) {
                            if (x[10] <= -0.84320575) {
                                if (x[10] <= -0.94026464) {
                                    votes[2] += -0.05738267;
                                }

                                else {
                                    votes[2] += 0.076982655;
                                }
                            }

                            else {
                                if (x[6] <= 0.64379865) {
                                    votes[2] += -0.055928487;
                                }

                                else {
                                    votes[2] += 0.005241768;
                                }
                            }
                        }

                        else {
                            if (x[6] <= 0.15813059) {
                                votes[2] += -0.0562431;
                            }

                            else {
                                if (x[2] <= 0.76203483) {
                                    votes[2] += 0.14774176;
                                }

                                else {
                                    votes[2] += 0.08832937;
                                }
                            }
                        }

                        // tree #32
                        if (x[9] <= -0.5737871) {
                            if (x[2] <= -0.21423352) {
                                if (x[9] <= -0.6202346) {
                                    votes[3] += 0.016030561;
                                }

                                else {
                                    votes[3] += 0.07880473;
                                }
                            }

                            else {
                                if (x[6] <= 0.15813059) {
                                    votes[3] += -0.05755512;
                                }

                                else {
                                    votes[3] += 0.11830796;
                                }
                            }
                        }

                        else {
                            if (x[9] <= -0.40412158) {
                                if (x[2] <= 0.014392314) {
                                    votes[3] += 0.119694285;
                                }

                                else {
                                    votes[3] += -0.0457526;
                                }
                            }

                            else {
                                votes[3] += -0.058631774;
                            }
                        }

                        // tree #33
                        if (x[8] <= -0.61341405) {
                            votes[0] += 0.08354384;
                        }

                        else {
                            if (x[2] <= -0.87412125) {
                                votes[0] += 0.010434382;
                            }

                            else {
                                votes[0] += -0.05805713;
                            }
                        }

                        // tree #34
                        if (x[2] <= -0.34286538) {
                            if (x[3] <= -0.5000913) {
                                if (x[5] <= -0.36274436) {
                                    votes[1] += -0.05742265;
                                }

                                else {
                                    votes[1] += -0.028473778;
                                }
                            }

                            else {
                                if (x[6] <= 0.15813059) {
                                    votes[1] += 0.059210163;
                                }

                                else {
                                    votes[1] += -0.064060666;
                                }
                            }
                        }

                        else {
                            if (x[2] <= 0.76203483) {
                                if (x[6] <= 0.40096462) {
                                    votes[1] += 0.0775868;
                                }

                                else {
                                    votes[1] += -0.071651705;
                                }
                            }

                            else {
                                if (x[6] <= 0.15813059) {
                                    votes[1] += 0.08107542;
                                }

                                else {
                                    votes[1] += -0.057720173;
                                }
                            }
                        }

                        // tree #35
                        if (x[2] <= 0.6226973) {
                            if (x[10] <= -0.8393995) {
                                if (x[10] <= -0.94026464) {
                                    votes[2] += -0.05642395;
                                }

                                else {
                                    votes[2] += 0.07058759;
                                }
                            }

                            else {
                                if (x[6] <= 0.64379865) {
                                    votes[2] += -0.0553373;
                                }

                                else {
                                    votes[2] += 0.006374178;
                                }
                            }
                        }

                        else {
                            if (x[6] <= 0.15813059) {
                                votes[2] += -0.055233378;
                            }

                            else {
                                if (x[2] <= 0.76203483) {
                                    votes[2] += 0.1325187;
                                }

                                else {
                                    votes[2] += 0.083164774;
                                }
                            }
                        }

                        // tree #36
                        if (x[9] <= -0.5737871) {
                            if (x[2] <= -0.21423352) {
                                if (x[9] <= -0.6202346) {
                                    votes[3] += 0.015205239;
                                }

                                else {
                                    votes[3] += 0.07342123;
                                }
                            }

                            else {
                                if (x[6] <= 0.15813059) {
                                    votes[3] += -0.056474593;
                                }

                                else {
                                    votes[3] += 0.10972142;
                                }
                            }
                        }

                        else {
                            if (x[9] <= -0.40412158) {
                                if (x[2] <= -0.046960514) {
                                    votes[3] += 0.12414165;
                                }

                                else {
                                    votes[3] += -0.04186338;
                                }
                            }

                            else {
                                votes[3] += -0.0578627;
                            }
                        }

                        // tree #37
                        if (x[0] <= -0.892408) {
                            votes[0] += 0.0793266;
                        }

                        else {
                            if (x[8] <= -0.6008213) {
                                if (x[10] <= -0.849208) {
                                    votes[0] += -0.04081468;
                                }

                                else {
                                    votes[0] += 0.010448102;
                                }
                            }

                            else {
                                votes[0] += -0.057380974;
                            }
                        }

                        // tree #38
                        if (x[2] <= -0.5963472) {
                            if (x[3] <= -0.5000913) {
                                if (x[5] <= -0.36274436) {
                                    votes[1] += -0.056443732;
                                }

                                else {
                                    votes[1] += -0.024022985;
                                }
                            }

                            else {
                                if (x[7] <= -0.02686747) {
                                    votes[1] += 0.060460676;
                                }

                                else {
                                    votes[1] += -0.050618656;
                                }
                            }
                        }

                        else {
                            if (x[2] <= 1.0458517) {
                                if (x[6] <= 0.15813059) {
                                    votes[1] += 0.077326775;
                                }

                                else {
                                    votes[1] += 0.021405717;
                                }
                            }

                            else {
                                if (x[6] <= 0.15813059) {
                                    votes[1] += 0.05321589;
                                }

                                else {
                                    votes[1] += -0.056460965;
                                }
                            }
                        }

                        // tree #39
                        if (x[2] <= 0.6226973) {
                            if (x[10] <= -0.84320575) {
                                if (x[10] <= -0.94026464) {
                                    votes[2] += -0.05552241;
                                }

                                else {
                                    votes[2] += 0.0675015;
                                }
                            }

                            else {
                                if (x[6] <= 0.64379865) {
                                    votes[2] += -0.054018248;
                                }

                                else {
                                    votes[2] += 0.0068487846;
                                }
                            }
                        }

                        else {
                            if (x[6] <= 0.15813059) {
                                votes[2] += -0.05429257;
                            }

                            else {
                                if (x[2] <= 0.76203483) {
                                    votes[2] += 0.1192788;
                                }

                                else {
                                    votes[2] += 0.07878708;
                                }
                            }
                        }

                        // tree #40
                        if (x[9] <= -0.5737871) {
                            if (x[2] <= -0.21423352) {
                                if (x[9] <= -0.6202346) {
                                    votes[3] += 0.014381009;
                                }

                                else {
                                    votes[3] += 0.06856989;
                                }
                            }

                            else {
                                if (x[6] <= 0.15813059) {
                                    votes[3] += -0.055486668;
                                }

                                else {
                                    votes[3] += 0.10362982;
                                }
                            }
                        }

                        else {
                            if (x[9] <= -0.40412158) {
                                if (x[2] <= 0.014392314) {
                                    votes[3] += 0.104732506;
                                }

                                else {
                                    votes[3] += -0.042764883;
                                }
                            }

                            else {
                                votes[3] += -0.057100683;
                            }
                        }

                        // tree #41
                        if (x[8] <= -0.61341405) {
                            votes[0] += 0.07577943;
                        }

                        else {
                            if (x[2] <= -0.87412125) {
                                votes[0] += 0.009429588;
                            }

                            else {
                                votes[0] += -0.056781877;
                            }
                        }

                        // tree #42
                        if (x[2] <= -0.5694736) {
                            if (x[3] <= -0.5000913) {
                                if (x[5] <= -0.36274436) {
                                    votes[1] += -0.055829972;
                                }

                                else {
                                    votes[1] += -0.026538415;
                                }
                            }

                            else {
                                if (x[6] <= 0.15813059) {
                                    votes[1] += 0.047263347;
                                }

                                else {
                                    votes[1] += -0.056129556;
                                }
                            }
                        }

                        else {
                            if (x[2] <= 1.0458517) {
                                if (x[6] <= 0.40096462) {
                                    votes[1] += 0.059607394;
                                }

                                else {
                                    votes[1] += -0.06810113;
                                }
                            }

                            else {
                                if (x[6] <= 0.15813059) {
                                    votes[1] += 0.050578345;
                                }

                                else {
                                    votes[1] += -0.055784922;
                                }
                            }
                        }

                        // tree #43
                        if (x[2] <= 0.6226973) {
                            if (x[10] <= -0.8393995) {
                                if (x[10] <= -0.94026464) {
                                    votes[2] += -0.054665547;
                                }

                                else {
                                    votes[2] += 0.062387973;
                                }
                            }

                            else {
                                if (x[6] <= 0.64379865) {
                                    votes[2] += -0.053548414;
                                }

                                else {
                                    votes[2] += 0.00792906;
                                }
                            }
                        }

                        else {
                            if (x[6] <= 0.15813059) {
                                votes[2] += -0.05339692;
                            }

                            else {
                                if (x[2] <= 0.76203483) {
                                    votes[2] += 0.10974329;
                                }

                                else {
                                    votes[2] += 0.07518155;
                                }
                            }
                        }

                        // tree #44
                        if (x[9] <= -0.5737871) {
                            if (x[2] <= -0.21423352) {
                                if (x[9] <= -0.61900294) {
                                    votes[3] += 0.016391665;
                                }

                                else {
                                    votes[3] += 0.06613859;
                                }
                            }

                            else {
                                if (x[6] <= 0.15813059) {
                                    votes[3] += -0.05452053;
                                }

                                else {
                                    votes[3] += 0.097039245;
                                }
                            }
                        }

                        else {
                            if (x[9] <= -0.40412158) {
                                if (x[2] <= 0.014392314) {
                                    votes[3] += 0.098086216;
                                }

                                else {
                                    votes[3] += -0.041226927;
                                }
                            }

                            else {
                                votes[3] += -0.056463003;
                            }
                        }

                        // tree #45
                        if (x[8] <= -0.61341405) {
                            votes[0] += 0.072758935;
                        }

                        else {
                            if (x[2] <= -0.8641095) {
                                votes[0] += 0.003990759;
                            }

                            else {
                                votes[0] += -0.056232262;
                            }
                        }

                        // tree #46
                        if (x[2] <= -0.34286538) {
                            if (x[6] <= 0.15813059) {
                                if (x[3] <= -0.50729495) {
                                    votes[1] += -0.051086087;
                                }

                                else {
                                    votes[1] += 0.052452076;
                                }
                            }

                            else {
                                if (x[2] <= -0.5694736) {
                                    votes[1] += -0.05630156;
                                }

                                else {
                                    votes[1] += -0.069515966;
                                }
                            }
                        }

                        else {
                            if (x[2] <= 1.0458517) {
                                if (x[6] <= 0.40096462) {
                                    votes[1] += 0.06356228;
                                }

                                else {
                                    votes[1] += -0.06734843;
                                }
                            }

                            else {
                                if (x[6] <= 0.15813059) {
                                    votes[1] += 0.048176948;
                                }

                                else {
                                    votes[1] += -0.055166453;
                                }
                            }
                        }

                        // tree #47
                        if (x[2] <= 0.6226973) {
                            if (x[10] <= -0.84320575) {
                                if (x[10] <= -0.94026464) {
                                    votes[2] += -0.053847224;
                                }

                                else {
                                    votes[2] += 0.060231894;
                                }
                            }

                            else {
                                if (x[6] <= 0.64379865) {
                                    votes[2] += -0.052310117;
                                }

                                else {
                                    votes[2] += 0.008349728;
                                }
                            }
                        }

                        else {
                            if (x[6] <= 0.15813059) {
                                votes[2] += -0.052633476;
                            }

                            else {
                                if (x[0] <= 0.4713548) {
                                    votes[2] += 0.09224444;
                                }

                                else {
                                    votes[2] += 0.071676426;
                                }
                            }
                        }

                        // tree #48
                        if (x[10] <= -0.10506206) {
                            if (x[10] <= -0.94026464) {
                                if (x[9] <= -0.62608415) {
                                    votes[3] += 0.0008789641;
                                }

                                else {
                                    votes[3] += 0.076954775;
                                }
                            }

                            else {
                                if (x[10] <= -0.8748332) {
                                    votes[3] += -0.0374029;
                                }

                                else {
                                    votes[3] += 0.044982832;
                                }
                            }
                        }

                        else {
                            if (x[7] <= -1.3510066) {
                                if (x[0] <= 0.7101262) {
                                    votes[3] += 0.1202419;
                                }

                                else {
                                    votes[3] += 0.027369658;
                                }
                            }

                            else {
                                if (x[9] <= -0.5953316) {
                                    votes[3] += 0.049006846;
                                }

                                else {
                                    votes[3] += -0.051586267;
                                }
                            }
                        }

                        // tree #49
                        if (x[0] <= -0.892408) {
                            votes[0] += 0.07024016;
                        }

                        else {
                            if (x[1] <= -0.60406363) {
                                if (x[9] <= -0.62475187) {
                                    votes[0] += -0.037842263;
                                }

                                else {
                                    votes[0] += 0.007432048;
                                }
                            }

                            else {
                                votes[0] += -0.05571806;
                            }
                        }

                        // tree #50
                        if (x[6] <= 0.15813059) {
                            if (x[2] <= -0.6719855) {
                                if (x[3] <= -0.62695956) {
                                    votes[1] += -0.05469514;
                                }

                                else {
                                    votes[1] += -0.0125102345;
                                }
                            }

                            else {
                                if (x[2] <= -0.5694736) {
                                    votes[1] += 0.02765654;
                                }

                                else {
                                    votes[1] += 0.0688277;
                                }
                            }
                        }

                        else {
                            if (x[9] <= 1.4062643) {
                                if (x[2] <= -0.5963472) {
                                    votes[1] += -0.055593412;
                                }

                                else {
                                    votes[1] += -0.065396264;
                                }
                            }

                            else {
                                if (x[2] <= -0.046960514) {
                                    votes[1] += 0.08083325;
                                }

                                else {
                                    votes[1] += 0.025735466;
                                }
                            }
                        }

                        // tree #51
                        if (x[2] <= 0.6038358) {
                            if (x[10] <= -0.8393995) {
                                if (x[10] <= -0.94026464) {
                                    votes[2] += -0.0529396;
                                }

                                else {
                                    votes[2] += 0.05492396;
                                }
                            }

                            else {
                                if (x[8] <= -0.35340792) {
                                    votes[2] += -0.055785026;
                                }

                                else {
                                    votes[2] += -0.015426464;
                                }
                            }
                        }

                        else {
                            if (x[6] <= 0.15813059) {
                                votes[2] += -0.052394975;
                            }

                            else {
                                if (x[2] <= 0.76203483) {
                                    votes[2] += 0.10152896;
                                }

                                else {
                                    votes[2] += 0.06953565;
                                }
                            }
                        }

                        // tree #52
                        if (x[9] <= -0.5737871) {
                            if (x[7] <= 0.280169) {
                                if (x[9] <= -0.6253329) {
                                    votes[3] += -0.03583951;
                                }

                                else {
                                    votes[3] += 0.03944963;
                                }
                            }

                            else {
                                if (x[8] <= -0.59030116) {
                                    votes[3] += 0.104895726;
                                }

                                else {
                                    votes[3] += 0.07283273;
                                }
                            }
                        }

                        else {
                            if (x[9] <= -0.40412158) {
                                if (x[2] <= -0.14377114) {
                                    votes[3] += 0.1157524;
                                }

                                else {
                                    votes[3] += -0.034240335;
                                }
                            }

                            else {
                                votes[3] += -0.055289518;
                            }
                        }

                        // tree #53
                        if (x[8] <= -0.61341405) {
                            votes[0] += 0.06780789;
                        }

                        else {
                            if (x[2] <= -0.8641095) {
                                votes[0] += 0.0037126695;
                            }

                            else {
                                votes[0] += -0.055251867;
                            }
                        }

                        // tree #54
                        if (x[6] <= 0.15813059) {
                            if (x[2] <= -0.6719855) {
                                if (x[3] <= -0.62695956) {
                                    votes[1] += -0.054177817;
                                }

                                else {
                                    votes[1] += -0.010798965;
                                }
                            }

                            else {
                                if (x[2] <= -0.34286538) {
                                    votes[1] += 0.03715087;
                                }

                                else {
                                    votes[1] += 0.06823305;
                                }
                            }
                        }

                        else {
                            if (x[9] <= 1.4062643) {
                                if (x[2] <= -0.5963472) {
                                    votes[1] += -0.05510654;
                                }

                                else {
                                    votes[1] += -0.06471561;
                                }
                            }

                            else {
                                if (x[7] <= 1.514684) {
                                    votes[1] += 0.023485279;
                                }

                                else {
                                    votes[1] += 0.07684195;
                                }
                            }
                        }

                        // tree #55
                        if (x[6] <= 0.15813059) {
                            if (x[10] <= -0.909) {
                                if (x[0] <= -0.693357) {
                                    votes[2] += 0.006904607;
                                }

                                else {
                                    votes[2] += 0.052846372;
                                }
                            }

                            else {
                                if (x[0] <= -0.7452743) {
                                    votes[2] += -0.06272551;
                                }

                                else {
                                    votes[2] += -0.051364016;
                                }
                            }
                        }

                        else {
                            if (x[2] <= -0.02312925) {
                                if (x[9] <= -0.6159809) {
                                    votes[2] += 0.042316746;
                                }

                                else {
                                    votes[2] += -0.050482627;
                                }
                            }

                            else {
                                if (x[2] <= 0.6226973) {
                                    votes[2] += 0.14495431;
                                }

                                else {
                                    votes[2] += 0.068114094;
                                }
                            }
                        }

                        // tree #56
                        if (x[9] <= -0.53878146) {
                            if (x[2] <= -0.21423352) {
                                if (x[10] <= -0.6342287) {
                                    votes[3] += 0.026338426;
                                }

                                else {
                                    votes[3] += 0.08110582;
                                }
                            }

                            else {
                                if (x[6] <= 0.15813059) {
                                    votes[3] += -0.047734674;
                                }

                                else {
                                    votes[3] += 0.097646154;
                                }
                            }
                        }

                        else {
                            if (x[7] <= -1.1669439) {
                                if (x[2] <= 0.2605004) {
                                    votes[3] += 0.104029946;
                                }

                                else {
                                    votes[3] += -0.031953253;
                                }
                            }

                            else {
                                if (x[7] <= -1.0493087) {
                                    votes[3] += -0.018688437;
                                }

                                else {
                                    votes[3] += -0.05452132;
                                }
                            }
                        }

                        // tree #57
                        if (x[0] <= -0.892408) {
                            votes[0] += 0.065685734;
                        }

                        else {
                            if (x[8] <= -0.6008213) {
                                if (x[9] <= -0.6255163) {
                                    votes[0] += -0.035753224;
                                }

                                else {
                                    votes[0] += 0.0052421703;
                                }
                            }

                            else {
                                votes[0] += -0.054800935;
                            }
                        }

                        // tree #58
                        if (x[6] <= 0.15813059) {
                            if (x[2] <= -0.6719855) {
                                if (x[3] <= -0.62695956) {
                                    votes[1] += -0.05368007;
                                }

                                else {
                                    votes[1] += -0.010036276;
                                }
                            }

                            else {
                                if (x[0] <= -0.693357) {
                                    votes[1] += -0.029388843;
                                }

                                else {
                                    votes[1] += 0.06116196;
                                }
                            }
                        }

                        else {
                            if (x[9] <= 1.4062643) {
                                if (x[2] <= -0.5963472) {
                                    votes[1] += -0.05460563;
                                }

                                else {
                                    votes[1] += -0.06371336;
                                }
                            }

                            else {
                                if (x[7] <= 1.514684) {
                                    votes[1] += 0.02237916;
                                }

                                else {
                                    votes[1] += 0.07349107;
                                }
                            }
                        }

                        // tree #59
                        if (x[6] <= 0.15813059) {
                            if (x[10] <= -0.909) {
                                if (x[5] <= -0.5420981) {
                                    votes[2] += 0.05164736;
                                }

                                else {
                                    votes[2] += 0.0058547985;
                                }
                            }

                            else {
                                if (x[5] <= -0.83438104) {
                                    votes[2] += -0.040430885;
                                }

                                else {
                                    votes[2] += -0.05562527;
                                }
                            }
                        }

                        else {
                            if (x[8] <= -0.35340792) {
                                if (x[9] <= -0.6159809) {
                                    votes[2] += 0.04016881;
                                }

                                else {
                                    votes[2] += -0.0503811;
                                }
                            }

                            else {
                                if (x[7] <= 0.15140775) {
                                    votes[2] += 0.06551554;
                                }

                                else {
                                    votes[2] += 0.117637135;
                                }
                            }
                        }

                        // tree #60
                        if (x[9] <= -0.53878146) {
                            if (x[2] <= -0.21423352) {
                                if (x[10] <= -0.6342287) {
                                    votes[3] += 0.024280116;
                                }

                                else {
                                    votes[3] += 0.07798587;
                                }
                            }

                            else {
                                if (x[6] <= 0.15813059) {
                                    votes[3] += -0.046493005;
                                }

                                else {
                                    votes[3] += 0.09054961;
                                }
                            }
                        }

                        else {
                            if (x[7] <= -1.12982) {
                                if (x[2] <= 0.2605004) {
                                    votes[3] += 0.095912926;
                                }

                                else {
                                    votes[3] += -0.03567388;
                                }
                            }

                            else {
                                if (x[7] <= -1.0493087) {
                                    votes[3] += -0.020031134;
                                }

                                else {
                                    votes[3] += -0.053967364;
                                }
                            }
                        }

                        // return argmax of votes
                        uint8_t classIdx = 0;
                        float maxVotes = votes[0];

                        for (uint8_t i = 1; i < 4; i++) {
                            if (votes[i] > maxVotes) {
                                classIdx = i;
                                maxVotes = votes[i];
                            }
                        }

                        return classIdx;
                    }

                protected:
                };
            }
        }
    }