#pragma once
#include <cstdarg>
namespace Eloquent {
    namespace ML {
        namespace Port {
            class one_class_svm {
                public:
                    /**
                    * Predict class for features vector
                    */
                    int predict(float *x) {
                        float kernels[24] = { 0 };
                        kernels[0] = compute_kernel(x,   -0.121832501688  , 0.427024850911  , 0.702442587363  , 3.334329924853  , -0.477192544086  , 2.140858974978  , 0.83062825496  , -0.744352720539  , -0.500204234693  , -0.491943061883  , -0.488110792096 );
                        kernels[1] = compute_kernel(x,   1.654776584479  , -0.607779182568  , -0.150976679408  , -0.704958378448  , -0.295815129327  , -1.81040440346  , -1.304220255226  , 1.477536884365  , 1.752687402483  , 2.525821592641  , 1.868623516727 );
                        kernels[2] = compute_kernel(x,   1.738415592907  , -0.215310327971  , 1.281034697759  , 0.245034972093  , 5.885978362639  , -1.181536708933  , -1.340240464912  , 1.943704133298  , 1.451650942814  , 3.70395944721  , 1.195255175343 );
                        kernels[3] = compute_kernel(x,   2.280079241854  , 2.0688311029  , 3.188554128927  , 0.553191329584  , 3.763732769372  , -0.650946203139  , -1.345319395812  , 1.902116331508  , 1.878644798698  , 1.944656981948  , 2.348856876535 );
                        kernels[4] = compute_kernel(x,   1.608097092715  , -0.381083695274  , 0.529011809371  , -1.350581328187  , 2.884274637487  , -1.480959712595  , -1.355460772716  , 2.002342211811  , 1.518818720919  , 2.739611488891  , 2.923845661627 );
                        kernels[5] = compute_kernel(x,   -0.586450779106  , -0.405404922421  , -0.752658594092  , -0.98925797241  , -0.413774618225  , -0.689364763393  , 0.976757111055  , -0.878348354856  , -0.507077611377  , -0.492061352553  , -0.488116547626 );
                        kernels[6] = compute_kernel(x,   -0.445365065631  , -0.21943323969  , -0.121271087627  , 1.42665833791  , -0.407484067461  , 1.1469857131  , 0.83062825496  , -1.390950035831  , -0.505594841234  , -0.492058406085  , -0.488116587771 );
                        kernels[7] = compute_kernel(x,   0.416111004038  , 2.189039770002  , 1.940778086592  , 3.320915729638  , -0.449525660558  , 2.569673560374  , 0.83062825496  , -0.827700047022  , -0.486161376885  , -0.491814696955  , -0.488107619913 );
                        kernels[8] = compute_kernel(x,   1.786637688008  , -0.08133260222  , 1.665103573121  , 0.944044357962  , 7.423422003096  , -1.031252786233  , -1.337426626364  , 1.735852968954  , 1.984228614393  , 1.824929519842  , 1.924737545176 );
                        kernels[9] = compute_kernel(x,   1.820412305947  , 0.09468953644  , 1.101489479422  , -0.061449206829  , 1.620014132984  , -1.292101679948  , -1.351523202485  , 1.37055057957  , 2.579969500904  , 0.647645032786  , 0.660347839143 );
                        kernels[10] = compute_kernel(x,   -0.790407743631  , -0.568641258921  , -0.939705308063  , -0.75345169727  , -0.443112624962  , -0.344064177376  , -1.06904687428  , 0.138381187416  , -0.508427811975  , -0.491723325206  , -0.488112620721 );
                        kernels[11] = compute_kernel(x,   1.969848068911  , 1.19665658543  , 2.913116835236  , 0.598556327765  , 5.245006557035  , -0.592774222508  , -1.352858148427  , 1.684717782344  , 2.078350464145  , 1.815318468225  , 1.328075976641 );
                        kernels[12] = compute_kernel(x,   1.97023109627  , 0.574700828676  , 1.765742054411  , 0.611376363451  , 3.560005430582  , -1.067635633811  , -1.322490633098  , 2.066824964898  , 1.39498783544  , 2.660770997763  , 3.914649477888 );
                        kernels[13] = compute_kernel(x,   1.126809738814  , 5.827729362317  , 3.519739746178  , 3.414312728457  , -0.484503999741  , 2.814174748021  , 0.83062825496  , -1.052390035783  , -0.457204876932  , -0.491734458935  , -0.488107088816 );
                        kernels[14] = compute_kernel(x,   2.598716028893  , 2.433854440566  , 2.666659556267  , 0.163641526208  , 1.598425730168  , -0.974242360357  , -1.340745801098  , 1.607830889764  , 2.274409638673  , 1.104100648516  , 1.640423267587 );
                        kernels[15] = compute_kernel(x,   2.580136578509  , 2.505106833076  , 3.024564899209  , 0.203739910374  , 2.253579369887  , -0.84486828026  , -1.349929454935  , 1.878983116763  , 1.838248402314  , 2.168047262722  , 2.111608300309 );
                        kernels[16] = compute_kernel(x,   1.655177976164  , -0.607789370214  , -0.151361658966  , -0.717314360366  , -0.316657133747  , -1.81065417023  , -1.303853737557  , 1.640309326405  , 1.592227186888  , 2.560478980772  , 2.844666799414 );
                        kernels[17] = compute_kernel(x,   -0.037338666563  , 0.64662738083  , 1.087534724318  , 3.395526919249  , -0.442792483814  , 2.449321581898  , 0.83062825496  , -0.608040296892  , -0.498838188827  , -0.491990116711  , -0.488113842599 );
                        kernels[18] = compute_kernel(x,   0.05334158058  , 0.906616521854  , 0.911348779306  , 1.042337313523  , -0.352384266559  , 1.371648785113  , 1.122885967151  , -0.805572711174  , -0.496895784045  , -0.491833365067  , -0.488075812748 );
                        kernels[19] = compute_kernel(x,   2.709487016404  , 2.08423482287  , 1.899389266009  , -0.375514985261  , 0.54155179516  , -1.26698619205  , -1.35122209443  , 1.744580871916  , 2.056336328091  , 1.836812662464  , 1.424295454849 );
                        kernels[20] = compute_kernel(x,   0.647730929559  , 3.209924355374  , 1.934905221758  , 1.937476656314  , -0.50742129156  , 1.687502959952  , 0.83062825496  , -0.887022009538  , -0.478339571779  , -0.491731091937  , -0.488106608869 );
                        kernels[21] = compute_kernel(x,   -0.27591060584  , 0.07736629938  , 0.311117168212  , 1.198327227814  , -0.422728529813  , 1.482874832438  , 0.684499398864  , 0.097469033991  , -0.503756227688  , -0.490008070861  , -0.488112427962 );
                        kernels[22] = compute_kernel(x,   -0.797241342334  , -0.569603073656  , -0.95249661922  , -0.826453088932  , -0.431761530937  , -0.3978966389  , -1.06904687428  , 0.070449825136  , -0.508449263709  , -0.491695446253  , -0.488112634642 );
                        kernels[23] = compute_kernel(x,   1.149832840481  , 5.971798449113  , 3.063334250527  , 1.598561243338  , -0.410670084468  , 1.518178191312  , 0.83062825496  , -1.056526446034  , -0.455220350523  , -0.491501434899  , -0.488112401721 );
                        float decision = -1.870968271378 - ( + kernels[0] * 0.258764742278  + kernels[1] * 0.235772303406  + kernels[2] * 0.818492430061  + kernels[3] * 0.275836134887  + kernels[4] * 0.464866339291  + kernels[5] * 0.91428734829  + kernels[6] * 0.464565141601  + kernels[7] * 0.306715191621  + kernels[8]   + kernels[9] * 0.607528648956  + kernels[10] * 0.127569009646  + kernels[11] * 0.283683842922  + kernels[12] * 0.547555935266  + kernels[13]   + kernels[14] * 0.45793906263  + kernels[15] * 0.301586169676  + kernels[16]   + kernels[17] * 0.870767686757  + kernels[18] * 0.021206075019  + kernels[19] * 0.43287017882  + kernels[20] * 0.293410061964  + kernels[21] * 0.025049825179  + kernels[22] * 0.866533871731  + kernels[23]  );

                        return decision > 0 ? 0 : 1;
                    }

                protected:
                    /**
                    * Compute kernel between feature vector and support vector.
                    * Kernel type: rbf
                    */
                    float compute_kernel(float *x, ...) {
                        va_list w;
                        va_start(w, 11);
                        float kernel = 0.0;

                        for (uint16_t i = 0; i < 11; i++) {
                            kernel += pow(x[i] - va_arg(w, double), 2);
                        }

                        return exp(-0.09 * kernel);
                    }
                };
            }
        }
    }